{"sizes":[40,20,4],"layers":[{"0":{},"1":{},"2":{},"3":{},"4":{},"5":{},"6":{},"7":{},"8":{},"9":{},"10":{},"11":{},"12":{},"13":{},"14":{},"15":{},"16":{},"17":{},"18":{},"19":{},"20":{},"21":{},"22":{},"23":{},"24":{},"25":{},"26":{},"27":{},"28":{},"29":{},"30":{},"31":{},"32":{},"33":{},"34":{},"35":{},"36":{},"37":{},"38":{},"39":{}},{"0":{"bias":0.3756076991558075,"weights":{"0":16.165302276611328,"1":-12.21933650970459,"2":-1.1935884952545166,"3":15.9378662109375,"4":5.686333656311035,"5":0.28521695733070374,"6":-3.0291988849639893,"7":-5.375190258026123,"8":-9.220808982849121,"9":2.2337660789489746,"10":-7.661778926849365,"11":-1.1070795059204102,"12":0.18378686904907227,"13":-0.30941241979599,"14":-1.5228140354156494,"15":-6.569057941436768,"16":-5.2389445304870605,"17":-7.5193281173706055,"18":-1.464745283126831,"19":2.7404534816741943,"20":-0.3638209402561188,"21":6.878657817840576,"22":0.463056743144989,"23":0.965803861618042,"24":3.415116310119629,"25":0.4230455160140991,"26":-2.7530956268310547,"27":-0.47843924164772034,"28":0.3079230785369873,"29":3.1208548545837402,"30":-3.9234306812286377,"31":-0.7515012621879578,"32":1.4200618267059326,"33":-2.813839912414551,"34":1.3414815664291382,"35":-0.6564947366714478,"36":-3.163933038711548,"37":-0.6086758971214294,"38":-0.21552549302577972,"39":0.3395135998725891}},"1":{"bias":-2.502372980117798,"weights":{"0":-13.0843505859375,"1":12.316594123840332,"2":17.55293083190918,"3":-22.98227882385254,"4":6.8198747634887695,"5":-7.397144317626953,"6":-6.011830806732178,"7":-2.430598258972168,"8":13.598308563232422,"9":3.3412296772003174,"10":-7.596837043762207,"11":1.8919686079025269,"12":3.6184403896331787,"13":-2.8043837547302246,"14":-2.61720609664917,"15":-1.2613797187805176,"16":2.7931859493255615,"17":2.37900972366333,"18":-0.01877773366868496,"19":4.010223388671875,"20":1.1999702453613281,"21":1.2300758361816406,"22":0.2701181471347809,"23":3.8931894302368164,"24":-1.2899662256240845,"25":0.17700941860675812,"26":-2.2580738067626953,"27":2.2452552318573,"28":-1.947908878326416,"29":3.1919989585876465,"30":-2.29071307182312,"31":-2.2108261585235596,"32":-1.6249699592590332,"33":1.7628705501556396,"34":2.6647682189941406,"35":-1.8048999309539795,"36":-0.15107408165931702,"37":0.8484833240509033,"38":1.1988635063171387,"39":0.11055926978588104}},"2":{"bias":-0.31487447023391724,"weights":{"0":0.4566986560821533,"1":-0.561089277267456,"2":-0.8674039840698242,"3":-0.7436110377311707,"4":-1.6186848878860474,"5":0.6205013990402222,"6":-0.3444218933582306,"7":-0.35233354568481445,"8":-0.47249236702919006,"9":0.2799554169178009,"10":-0.898672342300415,"11":0.034350574016571045,"12":0.23821842670440674,"13":0.017514897510409355,"14":-0.42574045062065125,"15":0.13529537618160248,"16":-0.0610872283577919,"17":-0.10835761576890945,"18":-1.0033557415008545,"19":-0.2746565639972687,"20":-0.014517731964588165,"21":-0.43801742792129517,"22":0.7979668974876404,"23":0.1331484615802765,"24":-0.12993738055229187,"25":0.18207839131355286,"26":0.729670524597168,"27":0.7756643295288086,"28":0.15325617790222168,"29":0.38842618465423584,"30":-0.047442302107810974,"31":0.4502420127391815,"32":-0.07907456904649734,"33":-0.08569233119487762,"34":0.2620028853416443,"35":-0.20665638148784637,"36":-0.16386976838111877,"37":-0.023536520078778267,"38":-0.18789049983024597,"39":0.10628543794155121}},"3":{"bias":6.762533187866211,"weights":{"0":-4.062803745269775,"1":-7.050222396850586,"2":-5.559513568878174,"3":-6.253212928771973,"4":1.4085755348205566,"5":13.005045890808105,"6":2.7522032260894775,"7":4.298716068267822,"8":-4.099703311920166,"9":-1.2301766872406006,"10":-8.939750671386719,"11":0.5384622812271118,"12":9.923073768615723,"13":-3.152301549911499,"14":-7.751401424407959,"15":1.7617160081863403,"16":-0.6339141726493835,"17":-1.7249739170074463,"18":-6.471584320068359,"19":0.35244008898735046,"20":1.2877424955368042,"21":-1.6094304323196411,"22":4.993148326873779,"23":-1.752406120300293,"24":2.0529229640960693,"25":0.2261137217283249,"26":0.8035706877708435,"27":1.4811420440673828,"28":1.128827691078186,"29":1.0880897045135498,"30":-0.8972022533416748,"31":3.1426899433135986,"32":1.7215473651885986,"33":-0.3155694901943207,"34":1.1411679983139038,"35":1.2451612949371338,"36":0.3575335741043091,"37":1.5143202543258667,"38":0.12258357554674149,"39":0.5214155912399292}},"4":{"bias":9.33371639251709,"weights":{"0":-16.316585540771484,"1":11.741925239562988,"2":4.489185810089111,"3":-18.01766014099121,"4":-3.8889784812927246,"5":-4.016048431396484,"6":8.322778701782227,"7":-4.590829849243164,"8":1.1574419736862183,"9":-1.9482414722442627,"10":5.185659885406494,"11":-8.664924621582031,"12":-0.5394678115844727,"13":-1.766226053237915,"14":-1.9872353076934814,"15":0.13070827722549438,"16":-2.945216417312622,"17":-5.1410393714904785,"18":-5.79729700088501,"19":-4.0788068771362305,"20":2.337390899658203,"21":2.8050146102905273,"22":-0.1479233205318451,"23":0.8958215117454529,"24":2.4593212604522705,"25":2.925107002258301,"26":2.3724470138549805,"27":3.7178561687469482,"28":1.3569753170013428,"29":-2.137096405029297,"30":0.6073784232139587,"31":0.6635209321975708,"32":-0.8398548364639282,"33":0.2628081142902374,"34":-3.124793529510498,"35":-1.4534833431243896,"36":1.0899124145507812,"37":0.6664484143257141,"38":-0.08445581048727036,"39":0.7290085554122925}},"5":{"bias":-1.4956774711608887,"weights":{"0":0.007555023767054081,"1":-2.8779759407043457,"2":2.0831100940704346,"3":2.7648940086364746,"4":1.8945817947387695,"5":-1.3555245399475098,"6":0.058185841888189316,"7":2.8240256309509277,"8":0.3195551335811615,"9":2.2677042484283447,"10":-0.9160827994346619,"11":-0.21501314640045166,"12":0.037831638008356094,"13":1.382929801940918,"14":-0.1566135436296463,"15":0.6638559103012085,"16":1.529270887374878,"17":-0.8873999714851379,"18":-0.8054628968238831,"19":-0.5794146060943604,"20":-0.8902370929718018,"21":-0.39838898181915283,"22":-0.16457779705524445,"23":-0.7665905356407166,"24":-0.5625469088554382,"25":-0.8930808305740356,"26":0.1601511389017105,"27":2.0680673122406006,"28":0.8335830569267273,"29":-1.6666179895401,"30":-0.18698301911354065,"31":0.16823047399520874,"32":0.8463664650917053,"33":0.5158030986785889,"34":-0.7313516736030579,"35":-0.527233362197876,"36":-0.17449842393398285,"37":-0.07255914062261581,"38":0.05266597121953964,"39":-0.07093587517738342}},"6":{"bias":6.67049503326416,"weights":{"0":-1.1140038967132568,"1":3.681398868560791,"2":-8.00440788269043,"3":-11.730889320373535,"4":-8.552473068237305,"5":3.2176952362060547,"6":-2.6264894008636475,"7":-1.8626168966293335,"8":-3.226588249206543,"9":2.075266122817993,"10":-3.9345929622650146,"11":4.343140602111816,"12":-2.3088274002075195,"13":0.5677042603492737,"14":-4.240452766418457,"15":3.5712547302246094,"16":-1.8131681680679321,"17":-0.5009629726409912,"18":-4.299798965454102,"19":3.142183542251587,"20":1.2102113962173462,"21":1.0438034534454346,"22":0.2642798125743866,"23":2.0633203983306885,"24":-3.581854820251465,"25":-0.8780306577682495,"26":0.40117189288139343,"27":2.638432264328003,"28":-0.10706204921007156,"29":3.369382619857788,"30":-2.0868823528289795,"31":-1.4137495756149292,"32":-0.6691901683807373,"33":-0.00015946404892019928,"34":1.1990971565246582,"35":-1.7532614469528198,"36":-1.3104946613311768,"37":0.5358570218086243,"38":-0.43939393758773804,"39":0.8165944814682007}},"7":{"bias":-1.734747290611267,"weights":{"0":-2.883235454559326,"1":3.2020225524902344,"2":2.123220920562744,"3":-3.4156527519226074,"4":-1.6803183555603027,"5":-1.8357590436935425,"6":1.6274752616882324,"7":-2.4505774974823,"8":1.9667679071426392,"9":-0.46192285418510437,"10":1.8265974521636963,"11":0.7058388590812683,"12":-3.4006779193878174,"13":-0.7384985089302063,"14":0.3014754354953766,"15":-0.4169774055480957,"16":-1.0251104831695557,"17":-0.8372142314910889,"18":0.9272732734680176,"19":-0.33610132336616516,"20":-0.7896119356155396,"21":1.2712037563323975,"22":0.353775292634964,"23":1.200488805770874,"24":1.5157663822174072,"25":1.4730526208877563,"26":0.551059365272522,"27":0.32033273577690125,"28":1.5665485858917236,"29":1.1265431642532349,"30":2.162141799926758,"31":0.6913430690765381,"32":0.8358446955680847,"33":0.9998674988746643,"34":-0.3093411326408386,"35":0.8272795677185059,"36":1.1860418319702148,"37":-0.06965356320142746,"38":0.04491294175386429,"39":-0.2670380771160126}},"8":{"bias":-2.8752152919769287,"weights":{"0":4.049297332763672,"1":-4.383728504180908,"2":0.6407573223114014,"3":2.209218978881836,"4":6.075103282928467,"5":-0.1991446167230606,"6":-2.5195136070251465,"7":3.9107937812805176,"8":0.4833633303642273,"9":-2.1569759845733643,"10":1.9407627582550049,"11":4.154646873474121,"12":-4.7783427238464355,"13":-1.1572214365005493,"14":2.7771053314208984,"15":-2.0080065727233887,"16":0.9476120471954346,"17":-0.09429800510406494,"18":2.302842617034912,"19":2.551870822906494,"20":2.348320960998535,"21":0.31843385100364685,"22":-1.333383560180664,"23":2.098450183868408,"24":2.316629409790039,"25":1.605000376701355,"26":-2.269143581390381,"27":-0.24912820756435394,"28":-0.8786872029304504,"29":-1.1923716068267822,"30":-1.1961098909378052,"31":-0.0743793323636055,"32":0.9933276176452637,"33":-0.12116119265556335,"34":0.9923244118690491,"35":-0.08171550929546356,"36":-0.3592891991138458,"37":-0.4172838032245636,"38":-0.41585636138916016,"39":-0.04277954623103142}},"9":{"bias":4.605714321136475,"weights":{"0":-2.492554187774658,"1":5.432545185089111,"2":-6.812592029571533,"3":-10.553858757019043,"4":-8.934005737304688,"5":3.0591132640838623,"6":-4.528498649597168,"7":-0.9623229503631592,"8":0.46514081954956055,"9":4.431217193603516,"10":-6.044095039367676,"11":4.079407691955566,"12":-1.3405693769454956,"13":0.8205018639564514,"14":-4.729400157928467,"15":1.945884108543396,"16":0.45073506236076355,"17":-0.5287597179412842,"18":-1.9803165197372437,"19":2.4232892990112305,"20":0.3940751552581787,"21":0.6519916653633118,"22":0.5447422862052917,"23":1.379931092262268,"24":-3.684286117553711,"25":-1.2755722999572754,"26":0.2750566005706787,"27":0.2231285125017166,"28":0.33269375562667847,"29":3.5472793579101562,"30":0.04401334002614021,"31":0.0393495075404644,"32":-0.7616593837738037,"33":0.4301392436027527,"34":1.3007618188858032,"35":-0.7613608241081238,"36":0.013294731266796589,"37":0.6719864010810852,"38":0.04753027856349945,"39":0.48066258430480957}},"10":{"bias":-10.263252258300781,"weights":{"0":6.718649864196777,"1":-6.838153839111328,"2":6.7996506690979,"3":12.108016014099121,"4":13.541775703430176,"5":3.9778482913970947,"6":-14.534952163696289,"7":4.243010997772217,"8":8.62852668762207,"9":1.7668720483779907,"10":-2.9897191524505615,"11":5.107237815856934,"12":2.353139638900757,"13":1.440706729888916,"14":-2.391404390335083,"15":2.694751739501953,"16":-10.25718879699707,"17":-3.711684226989746,"18":-3.012347459793091,"19":0.4615030586719513,"20":-2.052884817123413,"21":-1.6087743043899536,"22":-0.5833358764648438,"23":2.510986328125,"24":7.304646968841553,"25":1.744706392288208,"26":1.979661226272583,"27":1.2835839986801147,"28":2.4478373527526855,"29":1.8272737264633179,"30":2.046753168106079,"31":-1.9145305156707764,"32":1.5957475900650024,"33":2.4568939208984375,"34":0.9984322190284729,"35":-0.20219086110591888,"36":-0.6041987538337708,"37":-1.759602665901184,"38":-0.5636494159698486,"39":-0.9694642424583435}},"11":{"bias":3.438828468322754,"weights":{"0":-5.225478649139404,"1":-8.068305969238281,"2":-2.4721736907958984,"3":-3.9457712173461914,"4":9.633615493774414,"5":-4.902819633483887,"6":1.3597412109375,"7":9.220681190490723,"8":-3.709742546081543,"9":0.1375717669725418,"10":-6.582584381103516,"11":3.418104887008667,"12":2.339822769165039,"13":-0.42135676741600037,"14":-2.2790367603302,"15":-0.26525527238845825,"16":-0.042039718478918076,"17":-2.191943883895874,"18":2.564774513244629,"19":2.8499083518981934,"20":-4.753140449523926,"21":-0.8299131393432617,"22":-2.5236270427703857,"23":2.522174835205078,"24":3.8209643363952637,"25":1.8831557035446167,"26":-4.239833831787109,"27":0.7955679297447205,"28":2.386911153793335,"29":-3.523684501647949,"30":0.21559396386146545,"31":-0.23539279401302338,"32":2.74859356880188,"33":2.8283438682556152,"34":-1.337571144104004,"35":-2.6494863033294678,"36":-1.0749421119689941,"37":-1.18428373336792,"38":-0.993476390838623,"39":-0.30226853489875793}},"12":{"bias":6.704746246337891,"weights":{"0":-0.317247599363327,"1":12.336371421813965,"2":-4.069503307342529,"3":-10.210437774658203,"4":-6.4745378494262695,"5":8.565773010253906,"6":0.02896501123905182,"7":-12.204931259155273,"8":2.130530834197998,"9":-10.772186279296875,"10":-6.01081657409668,"11":3.631744861602783,"12":6.729001998901367,"13":0.1551317423582077,"14":1.1919686794281006,"15":3.161872625350952,"16":-6.548063278198242,"17":1.0818777084350586,"18":-2.4145426750183105,"19":-0.0974067747592926,"20":-0.9246205687522888,"21":-0.9688348770141602,"22":3.2114412784576416,"23":-4.3087053298950195,"24":7.368438243865967,"25":0.411060094833374,"26":-3.5064926147460938,"27":-3.188717842102051,"28":-1.3180938959121704,"29":5.816088676452637,"30":-1.5386418104171753,"31":0.7345126271247864,"32":-4.071534156799316,"33":-3.520895004272461,"34":1.5843369960784912,"35":0.4806636571884155,"36":-0.4385833740234375,"37":1.4228515625,"38":0.17402960360050201,"39":0.8572254776954651}},"13":{"bias":-2.5652756690979004,"weights":{"0":-4.864293575286865,"1":-1.0088030099868774,"2":4.533963203430176,"3":-4.439737796783447,"4":7.735002517700195,"5":-3.8748323917388916,"6":3.340324640274048,"7":5.636729717254639,"8":4.578169345855713,"9":1.0432531833648682,"10":-2.7953686714172363,"11":-0.9601492881774902,"12":-0.07954105734825134,"13":0.7464473247528076,"14":2.7682645320892334,"15":3.2950758934020996,"16":-2.721839666366577,"17":-2.94828462600708,"18":1.6575292348861694,"19":6.261936664581299,"20":-3.295667886734009,"21":-1.3621466159820557,"22":-4.12604284286499,"23":0.6416049003601074,"24":0.7308494448661804,"25":2.1575024127960205,"26":-3.373530387878418,"27":-1.8100777864456177,"28":-1.4752522706985474,"29":-6.16342830657959,"30":-0.6360050439834595,"31":-0.43060269951820374,"32":1.471057653427124,"33":1.6058504581451416,"34":-1.3813114166259766,"35":-0.8415977954864502,"36":0.7425037026405334,"37":0.21279653906822205,"38":-0.20558512210845947,"39":-0.4042033851146698}},"14":{"bias":-6.093181133270264,"weights":{"0":2.568824291229248,"1":-7.471935272216797,"2":2.8575079441070557,"3":7.550539493560791,"4":15.961575508117676,"5":15.238113403320312,"6":-5.122871398925781,"7":4.386448860168457,"8":-1.6657062768936157,"9":-7.740931510925293,"10":-4.792966842651367,"11":5.521408557891846,"12":0.04676929488778114,"13":-3.8295516967773438,"14":-2.272996425628662,"15":-1.2117360830307007,"16":8.30204963684082,"17":0.23657400906085968,"18":-4.214880466461182,"19":-1.140991449356079,"20":1.0939193964004517,"21":-1.71322500705719,"22":2.4409351348876953,"23":-2.1962549686431885,"24":-2.600970506668091,"25":-1.6513837575912476,"26":-1.4005577564239502,"27":-0.5341088771820068,"28":0.9846960306167603,"29":1.7994351387023926,"30":-2.5930392742156982,"31":-1.1509253978729248,"32":1.6554895639419556,"33":-1.7396085262298584,"34":1.7702209949493408,"35":1.4305574893951416,"36":-0.7144606113433838,"37":0.7062729001045227,"38":-0.035555217415094376,"39":-0.1949142962694168}},"15":{"bias":-1.3073292970657349,"weights":{"0":3.0597527027130127,"1":-1.0936834812164307,"2":-0.9808263778686523,"3":0.418969064950943,"4":-0.7124136686325073,"5":1.4118424654006958,"6":-1.6223695278167725,"7":-0.4419005513191223,"8":0.24949486553668976,"9":-0.7829595804214478,"10":0.6830926537513733,"11":2.0023038387298584,"12":-1.341620683670044,"13":-0.8365813493728638,"14":0.49713635444641113,"15":-0.7122694849967957,"16":0.793420135974884,"17":1.8833343982696533,"18":-0.6619520783424377,"19":0.8769873380661011,"20":1.9387389421463013,"21":0.5762980580329895,"22":1.0445499420166016,"23":1.24679434299469,"24":0.9822564125061035,"25":1.3365198373794556,"26":0.782693088054657,"27":0.1433613896369934,"28":-0.06477877497673035,"29":2.1378493309020996,"30":0.41962775588035583,"31":0.9698805212974548,"32":-0.41902482509613037,"33":-0.6513436436653137,"34":0.9962852597236633,"35":0.2526182234287262,"36":-0.05924950912594795,"37":0.13285034894943237,"38":-0.00048633950063958764,"39":0.18633981049060822}},"16":{"bias":-2.983341932296753,"weights":{"0":3.43434476852417,"1":-3.5080971717834473,"2":0.8655696511268616,"3":2.9165916442871094,"4":0.7819878458976746,"5":0.25826746225357056,"6":-2.1230897903442383,"7":0.9514666795730591,"8":0.5941560864448547,"9":0.4217928946018219,"10":-0.05107124149799347,"11":2.4700639247894287,"12":-1.1976276636123657,"13":-0.10565246641635895,"14":0.6447204947471619,"15":-0.48328593373298645,"16":1.8951549530029297,"17":2.0770528316497803,"18":-1.5021528005599976,"19":1.0237841606140137,"20":2.3388466835021973,"21":0.9891645312309265,"22":0.4832046926021576,"23":1.3246020078659058,"24":0.7020261883735657,"25":0.9316567778587341,"26":0.8342265486717224,"27":1.1886547803878784,"28":0.6097965240478516,"29":1.4691462516784668,"30":0.6332768797874451,"31":0.9105419516563416,"32":0.042026035487651825,"33":-0.6942715048789978,"34":0.46370503306388855,"35":0.22642353177070618,"36":-0.22735002636909485,"37":-0.29970377683639526,"38":-0.013993846252560616,"39":-0.11687533557415009}},"17":{"bias":0.8346264958381653,"weights":{"0":-2.345290422439575,"1":5.019290447235107,"2":-3.2182776927948,"3":-7.419068813323975,"4":-4.806420803070068,"5":2.530999183654785,"6":-2.942225933074951,"7":-0.028783993795514107,"8":0.4577854871749878,"9":1.1897051334381104,"10":-2.1451961994171143,"11":2.212352752685547,"12":-1.0169261693954468,"13":-1.379958987236023,"14":0.9948293566703796,"15":-2.300382614135742,"16":-0.5002860426902771,"17":1.9086008071899414,"18":1.833404779434204,"19":0.6162559390068054,"20":0.18829794228076935,"21":0.9860218167304993,"22":0.9883661866188049,"23":1.0878300666809082,"24":-0.5166652798652649,"25":1.0497784614562988,"26":0.9002876877784729,"27":-1.10275399684906,"28":-0.3870207369327545,"29":1.2735862731933594,"30":0.030355719849467278,"31":0.3394308090209961,"32":-0.6231138110160828,"33":-0.10831542313098907,"34":0.5662388205528259,"35":0.7608988881111145,"36":0.394173264503479,"37":0.10746603459119797,"38":-0.24647726118564606,"39":0.1958599090576172}},"18":{"bias":11.418344497680664,"weights":{"0":6.73306131362915,"1":-3.361572027206421,"2":-11.935599327087402,"3":-0.3435712456703186,"4":-11.797125816345215,"5":11.614812850952148,"6":-1.1982179880142212,"7":-10.239707946777344,"8":-13.596212387084961,"9":-7.486234188079834,"10":2.8108901977539062,"11":1.9965860843658447,"12":2.2761616706848145,"13":-3.4922993183135986,"14":0.6345387101173401,"15":-4.649575233459473,"16":0.9565451741218567,"17":-4.149477005004883,"18":0.1886884719133377,"19":-1.6366623640060425,"20":0.0545678585767746,"21":-2.2702128887176514,"22":1.7479510307312012,"23":0.009582428261637688,"24":3.8685812950134277,"25":1.637062430381775,"26":0.5989673733711243,"27":-0.029068969190120697,"28":-0.7321109175682068,"29":-3.499478578567505,"30":-1.0174643993377686,"31":-0.5391585230827332,"32":-1.2467962503433228,"33":-0.4681859612464905,"34":2.0799479484558105,"35":1.3501206636428833,"36":1.0084964036941528,"37":0.8865338563919067,"38":-0.4148348867893219,"39":0.8020062446594238}},"19":{"bias":0.5523970127105713,"weights":{"0":-2.215111017227173,"1":9.596484184265137,"2":-3.1767075061798096,"3":-6.628514289855957,"4":-8.641414642333984,"5":-0.44020524621009827,"6":-0.3486078381538391,"7":-2.4905731678009033,"8":4.644634246826172,"9":-0.6594813466072083,"10":1.2493430376052856,"11":0.6443813443183899,"12":-1.5766098499298096,"13":-0.5132362842559814,"14":3.037848711013794,"15":-6.184898853302002,"16":0.9462170600891113,"17":-1.3475881814956665,"18":5.494035720825195,"19":1.0018110275268555,"20":2.0699210166931152,"21":0.6563363075256348,"22":3.945544719696045,"23":-1.0025787353515625,"24":-1.9678694009780884,"25":-1.3534307479858398,"26":-0.5305722951889038,"27":-0.22861573100090027,"28":-0.7570540308952332,"29":1.279847502708435,"30":-0.785552442073822,"31":0.43053969740867615,"32":-0.758019208908081,"33":-1.4925895929336548,"34":0.7116621136665344,"35":0.7065330743789673,"36":0.281000018119812,"37":0.8995403051376343,"38":0.14434023201465607,"39":0.22360792756080627}}},{"Padaria":{"bias":-3.659614086151123,"weights":{"0":-18.47710418701172,"1":2.841048240661621,"2":0.6486313343048096,"3":6.000648021697998,"4":12.280496597290039,"5":-0.7377994060516357,"6":7.517720699310303,"7":-0.07029235363006592,"8":-10.749117851257324,"9":10.41126823425293,"10":-13.843734741210938,"11":-3.4213368892669678,"12":13.210506439208984,"13":-10.436859130859375,"14":-16.119550704956055,"15":-2.352902412414551,"16":-2.4274563789367676,"17":2.87044620513916,"18":11.132769584655762,"19":5.87308931350708}},"Limpeza":{"bias":3.3450138568878174,"weights":{"0":-6.024033546447754,"1":17.209300994873047,"2":-2.0961062908172607,"3":-18.741477966308594,"4":4.862276554107666,"5":1.4083555936813354,"6":-13.875761032104492,"7":3.021122932434082,"8":0.12381840497255325,"9":-8.525327682495117,"10":14.939973831176758,"11":-4.2752461433410645,"12":-2.0744433403015137,"13":3.974332809448242,"14":14.726957321166992,"15":-1.7724683284759521,"16":-0.9088770747184753,"17":-2.7022252082824707,"18":-15.733236312866211,"19":2.3101487159729004}},"Bebidas":{"bias":5.999914169311523,"weights":{"0":17.3847599029541,"1":-16.377269744873047,"2":0.6229239702224731,"3":-2.660341739654541,"4":-18.98268699645996,"5":4.355039596557617,"6":-8.02893352508545,"7":-4.949342727661133,"8":4.267684459686279,"9":-8.496692657470703,"10":14.014888763427734,"11":-7.574098110198975,"12":-13.101168632507324,"13":-5.683985710144043,"14":5.369726657867432,"15":4.886297702789307,"16":8.508021354675293,"17":-6.294124126434326,"18":-1.1799715757369995,"19":-6.6757402420043945}},"Acougue":{"bias":0.6838958263397217,"weights":{"0":-0.513288676738739,"1":-2.2675671577453613,"2":-0.0747561901807785,"3":2.5905508995056152,"4":2.0570554733276367,"5":5.513844966888428,"6":-3.3675663471221924,"7":-0.8292704224586487,"8":-0.978670060634613,"9":-5.6550374031066895,"10":-7.769691467285156,"11":11.853055000305176,"12":-15.827378273010254,"13":5.174610137939453,"14":-6.694049835205078,"15":-4.229489326477051,"16":-1.1564366817474365,"17":-6.090090274810791,"18":-0.65001380443573,"19":-9.136699676513672}}}],"outputLookup":true,"inputLookup":false,"activation":"sigmoid","trainOpts":{"iterations":2000,"errorThresh":0.005,"log":true,"logPeriod":1,"learningRate":0.3,"momentum":0.1,"callbackPeriod":10,"beta1":0.9,"beta2":0.999,"epsilon":1e-8}}